svm_type c_svc
kernel_type linear
nr_class 6
total_sv 44
rho 45.3841178282255 5.672651776987385 3.0636404908539885 -2.0554920451097254 5.761651927991147 -1.5486745891993325 0.9885817655157124 2.020995547777934 9.767334346932476 3.374271065964163 2.91359093830669 0.8231665821527088 -2.4189855979720134 -4.377132073640071 13.864052149436871
label 39 36 29 24 8 0
probA -0.0975813739848425 -0.8812731031059524 -0.16085773133725692 -0.6991444042246613 -0.9545426939211235 -0.6244028200390165 -2.104009743726686 0.07570083473260093 -0.2066250443285236 -0.7753499721705165 -0.10165689345111675 -0.7493926065272767 -1.2249555034264452 -1.6855733940735464 -0.5196624533170756
probB 0.20037189740357772 0.41933257037814353 -0.037466953537050256 -0.11153588015412884 0.1581866514790414 -0.08429706640176336 -0.22887301419927752 -0.2853479989422152 0.1527456479347739 -0.18219172205597145 -0.05826800331336688 -0.07990782594166279 0.0861728408658529 -0.07631184458896666 0.44258237652865684
nr_sv 7 9 7 6 8 7
SV
0.0 0.0 100.0 0.0 0.0 0:4.0 1:7.0 2:2.0 3:2.0 4:6.0 
3.4588917876413316 0.0 0.03348299436785535 0.06621728758177689 0.0 0:6.0 1:3.0 2:2.0 3:7.0 4:2.0 5:6.0 
19.575167681809347 0.0 100.0 0.0 0.0 0:4.0 1:2.0 2:2.0 3:2.0 4:6.0 
0.0 0.11138125668206958 0.034648706641127784 0.29348916357869104 0.1093372447570984 0:3.0 1:3.0 2:1.0 3:2.0 4:6.0 5:2.0 6:6.0 
100.0 0.0 0.0 0.0 0.0 0:6.0 1:3.0 2:2.0 3:2.0 4:7.0 5:2.0 6:6.0 
93.22594035013013 0.0 0.013261940522374943 0.059622228430010284 0.0 0:6.0 1:3.0 2:2.0 3:7.0 4:5.0 5:2.0 6:2.0 7:2.0 8:6.0 
5.778511123637682 2.000000000000002 25.124987807699615 0.09431794240720297 2.0002364165250857 0:4.0 1:7.0 2:2.0 3:6.0 
-93.03910531200813 0.0 0.02879953026773383 0.0 0.0 0:6.0 1:3.0 2:2.0 3:2.0 4:7.0 5:1.0 6:1.0 7:2.0 8:6.0 
-1.0276726950312174 0.0 0.0 100.0 0.0 0:3.0 1:2.0 2:2.0 3:7.0 4:6.0 5:5.0 6:2.0 7:6.0 
-14.038757159483376 0.0 6.91318024988568E-4 0.0 0.0 0:6.0 1:3.0 2:2.0 3:2.0 4:7.0 5:2.0 6:6.0 
-0.0 0.0 0.0 0.5140301312254952 0.0 0:6.0 1:3.0 2:2.0 3:2.0 4:8.0 5:3.0 6:2.0 7:6.0 
-0.0 0.0 0.024355254795444054 0.0 0.0 0:6.0 1:3.0 2:2.0 3:2.0 4:7.0 5:1.0 6:2.0 7:6.0 
-1.4552356783630218 0.05739642460867544 0.004225255953496755 67.91485032894752 4.19143418693629 0:3.0 1:2.0 2:7.0 3:1.0 4:2.0 5:2.0 6:6.0 
-0.0 0.08050792102813233 0.0 100.0 0.0 0:3.0 1:2.0 2:2.0 3:7.0 4:6.0 5:2.0 6:2.0 7:6.0 
-12.477740098332562 0.06824272796127091 0.038684852636409806 0.008782927154545601 1.0142718630500935 0:3.0 1:3.0 2:1.0 3:2.0 4:2.0 5:6.0 
-100.0 0.09236638512550768 0.019173283777412117 0.0 0.0 0:6.0 1:3.0 2:2.0 3:7.0 4:5.0 5:2.0 6:6.0 
-0.09572823816697038 -0.0737345761471811 100.0 3.4452358904596188 100.0 0:3.0 1:7.0 2:2.0 3:2.0 4:6.0 
-0.0 -0.0 0.0 0.0 6.228962838643691 0:3.0 1:7.0 2:2.0 3:6.0 
-0.025499608968677544 -0.08017723350175202 0.032860661132994316 1.7196392686885822 76.05709217574143 0:3.0 1:2.0 2:7.0 3:8.0 4:3.0 5:2.0 6:6.0 
-1.8986506559690444 -0.0 25.13319276381727 0.0 99.99751475414402 0:3.0 1:7.0 2:2.0 3:6.0 
-0.0 -0.0 0.0 0.0 0.02368191178627116 0:3.0 1:7.0 2:5.0 3:6.0 4:2.0 5:6.0 
-0.0635856335091477 -0.07683769778897505 100.0 0.0 19.10789031197385 0:3.0 1:2.0 2:2.0 3:6.0 
-0.027917120068231875 -0.06776395128567816 0.0 0.30488088803713564 0.0 0:3.0 1:7.0 2:2.0 3:7.0 4:4.0 5:9.0 6:7.0 7:6.0 
-0.03458395305890855 -0.017139028177596098 -0.0 0.0 0.0 0:3.0 1:3.0 2:1.0 3:2.0 4:6.0 
-24.923504441891556 -0.0029532758065290354 -0.006322117423756054 0.019153213468443116 0.04318326214084709 0:3.0 1:3.0 2:2.0 3:2.0 4:6.0 
-75.0883425118546 -0.07297859070026663 -0.0 4.694761570863639E-5 1.0465464548947936E-4 0:6.0 1:3.0 2:2.0 3:2.0 4:6.0 
-100.0 -0.0 -100.0 0.24824645473115722 100.0 0:3.0 1:7.0 2:2.0 3:2.0 4:6.0 
-0.0 -0.0 -25.159731307526513 0.0 0.0 0:3.0 1:3.0 2:2.0 3:6.0 
-25.159950542425925 -0.02285860077109339 -100.0 0.02766374887174234 0.2441851378064818 0:3.0 1:3.0 2:2.0 3:6.0 
-0.0 -0.6142770585875883 -0.0 -0.0 0.0 0:3.0 1:2.0 2:7.0 3:6.0 4:5.0 5:2.0 6:6.0 
-0.0 -98.54634936696208 -0.0 -0.0 0.0 0:3.0 1:1.0 2:2.0 3:7.0 4:6.0 5:5.0 6:2.0 7:6.0 
-0.2818450001388148 -67.30940674554748 -1.738994365120608 -0.031253469398969676 0.5533667907649732 0:3.0 1:1.0 2:2.0 3:7.0 4:5.0 5:2.0 6:6.0 
-0.0 -68.60572412017139 -0.0 -0.0 0.0 0:3.0 1:2.0 2:7.0 3:2.0 4:5.0 5:1.0 6:2.0 7:6.0 
-0.0 -26.738473139049514 -0.642501288451199 -0.0 0.0 0:3.0 1:7.0 2:2.0 3:6.0 4:2.0 5:4.0 6:2.0 7:6.0 
-0.02159116631954815 -0.005088976450677916 -0.0 -0.0 0.0 0:3.0 1:7.0 2:1.0 3:2.0 4:2.0 5:7.0 6:2.0 7:6.0 8:5.0 9:2.0 10:6.0 
-0.12576969177718444 -0.0 -3.0882603936135298 -0.2325998411360427 1.2768018690222016 0:3.0 1:7.0 2:5.0 3:2.0 4:6.0 
-0.08444076376213375 -6.6183439805588415 -0.0 -0.03125705415203893 0.08111742672650268 0:3.0 1:7.0 2:1.0 3:1.0 4:2.0 5:5.0 6:2.0 7:6.0 
-0.0 -0.836093727194539 -0.0 -0.0 -0.0 0:3.0 1:2.0 2:7.0 3:2.0 4:2.0 5:6.0 
-0.035130997714804615 -0.0 -76.04174328508942 -0.0 -0.4355056981809955 0:3.0 1:2.0 2:6.0 3:2.0 4:1.0 5:2.0 6:6.0 
-0.05847452348006341 -0.0 -100.0 -0.0 -0.33602774506671323 0:3.0 1:7.0 2:2.0 3:7.0 4:6.0 
-0.0 -0.06662949665296179 -19.123262346865506 -0.10433946663826939 -0.33517971902837207 0:3.0 1:2.0 2:6.0 3:5.0 4:6.0 
-1.9372593797178235 -0.0 -100.0 -0.20728203438078144 -0.0 0:3.0 1:7.0 2:2.0 3:6.0 
-0.04045576464949159 -3.981928148857041 -0.0 -0.025646695493686825 -0.0 0:3.0 1:2.0 2:6.0 3:1.0 4:1.0 5:2.0 6:6.0 
-0.03825299572000135 -0.32105467728184156 -6.250136360334139 -99.95020485808008 -0.8045729242375967 0:3.0 1:7.0 2:2.0 3:2.0 4:6.0 
