svm_type c_svc
kernel_type linear
nr_class 6
total_sv 47
rho 45.3841178282255 5.672651776987385 3.0636404908539885 -2.0554920451097254 5.685096624966763 -1.5486745891993325 0.9885817655157124 2.020995547777934 9.768491291669841 3.374271065964163 2.91359093830669 1.9982070902637947 -2.4189855979720134 -4.377132073640071 13.864645829318713
label 39 36 29 24 8 0
probA 0.050092713727861386 -0.6769645085943099 -0.1791848010761315 -0.4407163971861133 -0.9345738843884589 -0.7037401912265604 -2.1281975916313516 0.0039492907495566505 -0.14948902019006313 -0.8407296498561352 -0.1571254963299869 -0.03295482366432009 -1.366426667243355 -1.5470546395391873 -0.3148533121054632
probB 0.059887720960306326 0.45474925567894503 -0.05001032934028514 -0.192315310944921 0.1431776986945521 0.13386651661213142 -0.34071524899785616 0.017866782140661827 0.05380946483945513 -0.13755262073924632 -0.13230903868559563 0.01012612431174567 0.24164791784102063 0.29771292945062816 0.062476638682338714
nr_sv 8 9 8 6 8 8
SV
0.0 0.0 100.0 0.0 0.0 0:4.0 1:7.0 2:2.0 3:2.0 4:6.0 
3.4588917876413316 0.0 0.03348299436785535 0.06621728758177689 0.0 0:6.0 1:3.0 2:2.0 3:7.0 4:2.0 5:6.0 
19.575167681809347 0.0 100.0 0.0 0.0 0:4.0 1:2.0 2:2.0 3:2.0 4:6.0 
0.0 0.0 0.0 0.0 0.0018008364087182445 0:4.0 1:7.0 2:2.0 3:1.0 4:2.0 5:6.0 
0.0 0.11138125668206958 0.034648706641127784 0.29348916357869104 0.1117677810668245 0:3.0 1:3.0 2:1.0 3:2.0 4:6.0 5:2.0 6:6.0 
100.0 0.0 0.0 0.0 0.0 0:6.0 1:3.0 2:2.0 3:2.0 4:7.0 5:2.0 6:6.0 
93.22594035013013 0.0 0.013261940522374943 0.059622228430010284 0.0 0:6.0 1:3.0 2:2.0 3:7.0 4:5.0 5:2.0 6:2.0 7:2.0 8:6.0 
5.778511123637682 2.000000000000002 25.124987807699615 0.09431794240720297 1.9981991635912806 0:4.0 1:7.0 2:2.0 3:6.0 
-93.03910531200813 0.0 0.02879953026773383 0.0 0.0 0:6.0 1:3.0 2:2.0 3:2.0 4:7.0 5:1.0 6:1.0 7:2.0 8:6.0 
-1.0276726950312174 0.0 0.0 100.0 0.0 0:3.0 1:2.0 2:2.0 3:7.0 4:6.0 5:5.0 6:2.0 7:6.0 
-14.038757159483376 0.0 6.91318024988568E-4 0.0 0.0 0:6.0 1:3.0 2:2.0 3:2.0 4:7.0 5:2.0 6:6.0 
-0.0 0.0 0.0 0.5140301312254952 0.0 0:6.0 1:3.0 2:2.0 3:2.0 4:8.0 5:3.0 6:2.0 7:6.0 
-0.0 0.0 0.024355254795444054 0.0 0.0 0:6.0 1:3.0 2:2.0 3:2.0 4:7.0 5:1.0 6:2.0 7:6.0 
-1.4552356783630218 0.05739642460867544 0.004225255953496755 67.91485032894752 4.191744168454756 0:3.0 1:2.0 2:7.0 3:1.0 4:2.0 5:2.0 6:6.0 
-0.0 0.08050792102813233 0.0 100.0 0.0 0:3.0 1:2.0 2:2.0 3:7.0 4:6.0 5:2.0 6:2.0 7:6.0 
-12.477740098332562 0.06824272796127091 0.038684852636409806 0.008782927154545601 1.014325805029558 0:3.0 1:3.0 2:1.0 3:2.0 4:2.0 5:6.0 
-100.0 0.09236638512550768 0.019173283777412117 0.0 0.0 0:6.0 1:3.0 2:2.0 3:7.0 4:5.0 5:2.0 6:6.0 
-0.09572823816697038 -0.0737345761471811 100.0 3.4452358904596188 100.0 0:3.0 1:7.0 2:2.0 3:2.0 4:6.0 
-0.0 -0.0 0.0 0.0 0.13208811391180092 0:3.0 1:7.0 2:2.0 3:6.0 
-0.025499608968677544 -0.08017723350175202 0.032860661132994316 1.7196392686885822 0.0 0:3.0 1:2.0 2:7.0 3:8.0 4:3.0 5:2.0 6:6.0 
-1.8986506559690444 -0.0 25.13319276381727 0.0 49.74072826167617 0:3.0 1:7.0 2:2.0 3:6.0 
-0.0 -0.0 0.0 0.0 83.58385230082254 0:3.0 1:7.0 2:5.0 3:6.0 4:2.0 5:6.0 
-0.0 -0.0 0.0 0.0 66.54336929872638 0:3.0 1:7.0 2:2.0 3:6.0 4:2.0 5:6.0 
-0.0635856335091477 -0.07683769778897505 100.0 0.0 50.1595757493106 0:3.0 1:2.0 2:2.0 3:6.0 
-0.027917120068231875 -0.06776395128567816 0.0 0.30488088803713564 0.0 0:3.0 1:7.0 2:2.0 3:7.0 4:4.0 5:9.0 6:7.0 7:6.0 
-0.03458395305890855 -0.017139028177596098 -0.0 0.0 0.0 0:3.0 1:3.0 2:1.0 3:2.0 4:6.0 
-24.923504441891556 -0.0029532758065290354 -0.006322117423756054 0.019153213468443116 0.04318326214084709 0:3.0 1:3.0 2:2.0 3:2.0 4:6.0 
-75.0883425118546 -0.07297859070026663 -0.0 4.694761570863639E-5 1.0465464548947936E-4 0:6.0 1:3.0 2:2.0 3:2.0 4:6.0 
-100.0 -0.0 -100.0 0.24824645473115722 100.0 0:3.0 1:7.0 2:2.0 3:2.0 4:6.0 
-0.0 -0.0 -25.159731307526513 0.0 0.0 0:3.0 1:3.0 2:2.0 3:6.0 
-25.159950542425925 -0.02285860077109339 -100.0 0.02766374887174234 0.2441851378064818 0:3.0 1:3.0 2:2.0 3:6.0 
-0.0 -0.6142770585875883 -0.0 -0.0 0.0 0:3.0 1:2.0 2:7.0 3:6.0 4:5.0 5:2.0 6:6.0 
-0.0 -98.54634936696208 -0.0 -0.0 0.0 0:3.0 1:1.0 2:2.0 3:7.0 4:6.0 5:5.0 6:2.0 7:6.0 
-0.2818450001388148 -67.30940674554748 -1.738994365120608 -0.031253469398969676 0.5533726990205912 0:3.0 1:1.0 2:2.0 3:7.0 4:5.0 5:2.0 6:6.0 
-0.0 -68.60572412017139 -0.0 -0.0 0.0 0:3.0 1:2.0 2:7.0 3:2.0 4:5.0 5:1.0 6:2.0 7:6.0 
-0.0 -26.738473139049514 -0.642501288451199 -0.0 0.0 0:3.0 1:7.0 2:2.0 3:6.0 4:2.0 5:4.0 6:2.0 7:6.0 
-0.02159116631954815 -0.005088976450677916 -0.0 -0.0 0.0 0:3.0 1:7.0 2:1.0 3:2.0 4:2.0 5:7.0 6:2.0 7:6.0 8:5.0 9:2.0 10:6.0 
-0.12576969177718444 -0.0 -3.0882603936135298 -0.2325998411360427 1.2768391963556565 0:3.0 1:7.0 2:5.0 3:2.0 4:6.0 
-0.08444076376213375 -6.6183439805588415 -0.0 -0.03125705415203893 0.08112196136042889 0:3.0 1:7.0 2:1.0 3:1.0 4:2.0 5:5.0 6:2.0 7:6.0 
-0.0 -0.8361385117210038 -50.11334283808137 -0.0 -0.0 0:3.0 1:2.0 2:7.0 3:2.0 4:2.0 5:6.0 
-0.04420048823793475 -0.0 -0.0 -0.0 -0.4355109275444443 0:3.0 1:2.0 2:6.0 3:2.0 4:1.0 5:2.0 6:6.0 
-0.059868229917627476 -0.0 -100.0 -0.0 -0.3360183078362722 0:3.0 1:7.0 2:2.0 3:7.0 4:6.0 
-0.0 -0.06663994079144481 -0.0462708863658773 -0.10433946663826939 -0.3351932417752 0:3.0 1:2.0 2:6.0 3:5.0 4:6.0 
-1.9272630751128184 -0.0 -100.0 -0.20728203438078144 -0.0 0:3.0 1:7.0 2:2.0 3:6.0 
-0.03127360667497418 -3.982216786540928 -0.0 -0.025646695493686825 -0.0 0:3.0 1:2.0 2:6.0 3:1.0 4:1.0 5:2.0 6:6.0 
-0.013892125032878835 -0.0 -100.0 -0.0 -0.0 0:3.0 1:7.0 2:2.0 3:3.0 4:2.0 5:6.0 
-0.03527025609058936 -0.3210747344309372 -0.0 -99.95020485808008 -0.8046113795807602 0:3.0 1:7.0 2:2.0 3:2.0 4:6.0 
