svm_type c_svc
kernel_type linear
nr_class 3
total_sv 18
rho 45.3841178282255 5.672651776987385 -1.5486745891993325
label 39 36 29
probA -0.07227380338522424 -0.7706392022780937 -0.5589856504377319
probB -0.048622177853702354 0.43180682429585426 0.05829366455388505
nr_sv 6 7 5
SV
3.4588917876413316 0.0 0:6.0 1:3.0 2:2.0 3:7.0 4:2.0 5:6.0 
19.575167681809347 0.0 0:4.0 1:2.0 2:2.0 3:2.0 4:6.0 
0.0 0.11138125668206958 0:3.0 1:3.0 2:1.0 3:2.0 4:6.0 5:2.0 6:6.0 
100.0 0.0 0:6.0 1:3.0 2:2.0 3:2.0 4:7.0 5:2.0 6:6.0 
93.22594035013013 0.0 0:6.0 1:3.0 2:2.0 3:7.0 4:5.0 5:2.0 6:2.0 7:2.0 8:6.0 
5.778511123637682 2.000000000000002 0:4.0 1:7.0 2:2.0 3:6.0 
-93.03910531200813 0.0 0:6.0 1:3.0 2:2.0 3:2.0 4:7.0 5:1.0 6:1.0 7:2.0 8:6.0 
-1.0276726950312174 0.0 0:3.0 1:2.0 2:2.0 3:7.0 4:6.0 5:5.0 6:2.0 7:6.0 
-14.038757159483376 0.0 0:6.0 1:3.0 2:2.0 3:2.0 4:7.0 5:2.0 6:6.0 
-1.4552356783630218 0.05739642460867544 0:3.0 1:2.0 2:7.0 3:1.0 4:2.0 5:2.0 6:6.0 
-0.0 0.08050792102813233 0:3.0 1:2.0 2:2.0 3:7.0 4:6.0 5:2.0 6:2.0 7:6.0 
-12.477740098332562 0.06824272796127091 0:3.0 1:3.0 2:1.0 3:2.0 4:2.0 5:6.0 
-100.0 0.09236638512550768 0:6.0 1:3.0 2:2.0 3:7.0 4:5.0 5:2.0 6:6.0 
-0.09572823816697038 -0.0737345761471811 0:3.0 1:7.0 2:2.0 3:2.0 4:6.0 
-0.025499608968677544 -0.08017723350175202 0:3.0 1:2.0 2:7.0 3:8.0 4:3.0 5:2.0 6:6.0 
-1.8986506559690444 -0.0 0:3.0 1:7.0 2:2.0 3:6.0 
-0.0635856335091477 -0.07683769778897505 0:3.0 1:2.0 2:2.0 3:6.0 
-0.027917120068231875 -0.06776395128567816 0:3.0 1:7.0 2:2.0 3:7.0 4:4.0 5:9.0 6:7.0 7:6.0 
