svm_type c_svc
kernel_type linear
nr_class 3
total_sv 17
rho 45.3841178282255 5.0460869885729 -1.1823629781662521
label 39 36 29
probA -0.04805440149756538 -0.6580233533976976 -1.0618777657839367
probB -0.025824021892557173 0.06577423261578892 -0.09154422161662494
nr_sv 6 7 4
SV
3.4588917876413316 0.0 0:6.0 1:3.0 2:2.0 3:7.0 4:2.0 5:6.0 
19.575167681809347 0.0 0:4.0 1:2.0 2:2.0 3:2.0 4:6.0 
0.0 0.07480775549787307 0:3.0 1:3.0 2:1.0 3:2.0 4:6.0 5:2.0 6:6.0 
100.0 0.0 0:6.0 1:3.0 2:2.0 3:2.0 4:7.0 5:2.0 6:6.0 
93.22594035013013 0.0 0:6.0 1:3.0 2:2.0 3:7.0 4:5.0 5:2.0 6:2.0 7:2.0 8:6.0 
5.778511123637682 2.0 0:4.0 1:7.0 2:2.0 3:6.0 
-93.03910531200813 0.0 0:6.0 1:3.0 2:2.0 3:2.0 4:7.0 5:1.0 6:1.0 7:2.0 8:6.0 
-1.0276726950312174 0.0 0:3.0 1:2.0 2:2.0 3:7.0 4:6.0 5:5.0 6:2.0 7:6.0 
-14.038757159483376 0.0 0:6.0 1:3.0 2:2.0 3:2.0 4:7.0 5:2.0 6:6.0 
-1.4552356783630218 0.08068311541433934 0:3.0 1:2.0 2:7.0 3:1.0 4:2.0 5:2.0 6:6.0 
-0.0 0.03928899742317008 0:3.0 1:2.0 2:2.0 3:7.0 4:6.0 5:2.0 6:2.0 7:6.0 
-12.477740098332562 0.0 0:3.0 1:3.0 2:1.0 3:2.0 4:2.0 5:6.0 
-100.0 0.07796998919236357 0:6.0 1:3.0 2:2.0 3:7.0 4:5.0 5:2.0 6:6.0 
-0.06547984266883032 -0.06619664775623384 0:3.0 1:7.0 2:2.0 3:2.0 4:6.0 
-0.03955149378772729 -0.13174545427363918 0:3.0 1:2.0 2:7.0 3:8.0 4:3.0 5:2.0 6:6.0 
-1.9623374290114524 -0.0 0:3.0 1:7.0 2:2.0 3:6.0 
-0.007438990029863083 -0.0 0:3.0 1:7.0 2:2.0 3:6.0 4:2.0 5:6.0 
